<?xml version="1.0"?>
<opencv_storage>
<cascade type_id="opencv-cascade-classifier"><stageType>BOOST</stageType>
  <featureType>HAAR</featureType>
  <height>30</height>
  <width>20</width>
  <stageParams>
    <maxWeakCount>100</maxWeakCount></stageParams>
  <featureParams>
    <maxCatCount>0</maxCatCount></featureParams>
  <stageNum>15</stageNum>
  <stages>
    <!-- stage 0 -->
    <_>
      <maxWeakCount>3</maxWeakCount>
      <stageThreshold>-1.4355127811431885e+00</stageThreshold>
      <weakClassifiers>
        <_>
          <internalNodes>
            0 -1 9 -7.4876204133033752e-02</internalNodes>
          <leafValues>
            6.4285713434219360e-01 -9.5098036527633667e-01</leafValues></_>
        <_>
          <internalNodes>
            0 -1 29 -5.7995859533548355e-02</internalNodes>
          <leafValues>
            4.1332307457923889e-01 -9.2912590503692627e-01</leafValues></_>
        <_>
          <internalNodes>
            0 -1 21 -2.0926131308078766e-01</internalNodes>
          <leafValues>
            6.7544794082641602e-01 -8.9785546064376831e-01</leafValues></_></weakClassifiers></_>
    <!-- stage 1 -->
    <_>
      <maxWeakCount>3</maxWeakCount>
      <stageThreshold>-1.7023249864578247e+00</stageThreshold>
      <weakClassifiers>
        <_>
          <internalNodes>
            0 -1 35 -1.0202896595001221e-01</internalNodes>
          <leafValues>
            3.5135135054588318e-01 -9.5450049638748169e-01</leafValues></_>
        <_>
          <internalNodes>
            0 -1 44 -1.4425437897443771e-02</internalNodes>
          <leafValues>
            7.3309309780597687e-02 -9.8451673984527588e-01</leafValues></_>
        <_>
          <internalNodes>
            0 -1 43 -7.3734344914555550e-03</internalNodes>
          <leafValues>
            4.5571875572204590e-01 -8.2113373279571533e-01</leafValues></_></weakClassifiers></_>
    <!-- stage 2 -->
    <_>
      <maxWeakCount>3</maxWeakCount>
      <stageThreshold>-1.8781557083129883e+00</stageThreshold>
      <weakClassifiers>
        <_>
          <internalNodes>
            0 -1 17 -2.5740601122379303e-03</internalNodes>
          <leafValues>
            5.3846156597137451e-01 -9.4520545005798340e-01</leafValues></_>
        <_>
          <internalNodes>
            0 -1 25 -2.6189670898020267e-03</internalNodes>
          <leafValues>
            -4.8530995263718069e-04 -9.6813583374023438e-01</leafValues></_>
        <_>
          <internalNodes>
            0 -1 12 1.2133711948990822e-02</internalNodes>
          <leafValues>
            -9.3246495723724365e-01 2.5181403756141663e-01</leafValues></_></weakClassifiers></_>
    <!-- stage 3 -->
    <_>
      <maxWeakCount>3</maxWeakCount>
      <stageThreshold>-1.7228624820709229e+00</stageThreshold>
      <weakClassifiers>
        <_>
          <internalNodes>
            0 -1 10 -5.9200920164585114e-02</internalNodes>
          <leafValues>
            2.8571429848670959e-01 -9.4117647409439087e-01</leafValues></_>
        <_>
          <internalNodes>
            0 -1 7 -4.2176045477390289e-02</internalNodes>
          <leafValues>
            3.0610734596848488e-02 -9.2617195844650269e-01</leafValues></_>
        <_>
          <internalNodes>
            0 -1 36 -1.5013957163318992e-03</internalNodes>
          <leafValues>
            3.8636794686317444e-01 -8.1229674816131592e-01</leafValues></_></weakClassifiers></_>
    <!-- stage 4 -->
    <_>
      <maxWeakCount>3</maxWeakCount>
      <stageThreshold>-1.4641699790954590e+00</stageThreshold>
      <weakClassifiers>
        <_>
          <internalNodes>
            0 -1 33 6.3868112862110138e-02</internalNodes>
          <leafValues>
            -9.2307692766189575e-01 1.</leafValues></_>
        <_>
          <internalNodes>
            0 -1 15 -1.0815944522619247e-02</internalNodes>
          <leafValues>
            4.0754383802413940e-01 -7.7381473779678345e-01</leafValues></_>
        <_>
          <internalNodes>
            0 -1 47 7.9193070996552706e-04</internalNodes>
          <leafValues>
            -9.4863694906234741e-01 2.7890059351921082e-01</leafValues></_></weakClassifiers></_>
    <!-- stage 5 -->
    <_>
      <maxWeakCount>3</maxWeakCount>
      <stageThreshold>-1.4987901449203491e+00</stageThreshold>
      <weakClassifiers>
        <_>
          <internalNodes>
            0 -1 5 -8.6969517171382904e-02</internalNodes>
          <leafValues>
            1. -9.2307692766189575e-01</leafValues></_>
        <_>
          <internalNodes>
            0 -1 3 -8.5451260209083557e-02</internalNodes>
          <leafValues>
            2.8544437885284424e-01 -7.9019832611083984e-01</leafValues></_>
        <_>
          <internalNodes>
            0 -1 38 -3.1653712503612041e-03</internalNodes>
          <leafValues>
            2.1448507905006409e-01 -1.</leafValues></_></weakClassifiers></_>
    <!-- stage 6 -->
    <_>
      <maxWeakCount>4</maxWeakCount>
      <stageThreshold>-2.1302275657653809e+00</stageThreshold>
      <weakClassifiers>
        <_>
          <internalNodes>
            0 -1 20 -4.7567702829837799e-02</internalNodes>
          <leafValues>
            6.0000002384185791e-01 -9.3030011653900146e-01</leafValues></_>
        <_>
          <internalNodes>
            0 -1 30 -1.5891179442405701e-02</internalNodes>
          <leafValues>
            1.7540843784809113e-01 -8.5895997285842896e-01</leafValues></_>
        <_>
          <internalNodes>
            0 -1 42 2.8797775506973267e-02</internalNodes>
          <leafValues>
            -6.7066371440887451e-01 5.0019448995590210e-01</leafValues></_>
        <_>
          <internalNodes>
            0 -1 40 -3.2127066515386105e-04</internalNodes>
          <leafValues>
            -9.5411103963851929e-01 3.2969614863395691e-01</leafValues></_></weakClassifiers></_>
    <!-- stage 7 -->
    <_>
      <maxWeakCount>4</maxWeakCount>
      <stageThreshold>-1.6644418239593506e+00</stageThreshold>
      <weakClassifiers>
        <_>
          <internalNodes>
            0 -1 0 -1.8537086248397827e-01</internalNodes>
          <leafValues>
            7.6923079788684845e-02 -9.3346381187438965e-01</leafValues></_>
        <_>
          <internalNodes>
            0 -1 24 -7.5442292727530003e-03</internalNodes>
          <leafValues>
            -8.0622434616088867e-02 -8.7990045547485352e-01</leafValues></_>
        <_>
          <internalNodes>
            0 -1 40 3.3898503170348704e-04</internalNodes>
          <leafValues>
            2.2791986167430878e-01 -8.5717606544494629e-01</leafValues></_>
        <_>
          <internalNodes>
            0 -1 39 -6.3034892082214355e-04</internalNodes>
          <leafValues>
            2.0682047307491302e-01 -9.7893649339675903e-01</leafValues></_></weakClassifiers></_>
    <!-- stage 8 -->
    <_>
      <maxWeakCount>3</maxWeakCount>
      <stageThreshold>-1.6104310750961304e+00</stageThreshold>
      <weakClassifiers>
        <_>
          <internalNodes>
            0 -1 34 -5.5364422500133514e-02</internalNodes>
          <leafValues>
            1.5384615957736969e-01 -9.3542075157165527e-01</leafValues></_>
        <_>
          <internalNodes>
            0 -1 2 -3.5926900804042816e-02</internalNodes>
          <leafValues>
            6.1531718820333481e-02 -8.1322091817855835e-01</leafValues></_>
        <_>
          <internalNodes>
            0 -1 26 3.2829720294103026e-04</internalNodes>
          <leafValues>
            -9.5105624198913574e-01 1.4006184041500092e-01</leafValues></_></weakClassifiers></_>
    <!-- stage 9 -->
    <_>
      <maxWeakCount>3</maxWeakCount>
      <stageThreshold>-1.5139427185058594e+00</stageThreshold>
      <weakClassifiers>
        <_>
          <internalNodes>
            0 -1 46 1.2853016145527363e-02</internalNodes>
          <leafValues>
            -9.2801558971405029e-01 1.0000000149011612e-01</leafValues></_>
        <_>
          <internalNodes>
            0 -1 11 -1.0697066783905029e-01</internalNodes>
          <leafValues>
            1.9472444057464600e-01 -7.8557682037353516e-01</leafValues></_>
        <_>
          <internalNodes>
            0 -1 32 -3.9934745291247964e-04</internalNodes>
          <leafValues>
            1.9964960217475891e-01 -9.8744583129882813e-01</leafValues></_></weakClassifiers></_>
    <!-- stage 10 -->
    <_>
      <maxWeakCount>3</maxWeakCount>
      <stageThreshold>-1.5791728496551514e+00</stageThreshold>
      <weakClassifiers>
        <_>
          <internalNodes>
            0 -1 27 1.7661713063716888e-02</internalNodes>
          <leafValues>
            -9.2628514766693115e-01 1.7647059261798859e-01</leafValues></_>
        <_>
          <internalNodes>
            0 -1 6 -4.3526276946067810e-02</internalNodes>
          <leafValues>
            1.5890158712863922e-01 -8.2100558280944824e-01</leafValues></_>
        <_>
          <internalNodes>
            0 -1 37 -1.5973611152730882e-04</internalNodes>
          <leafValues>
            2.0217892527580261e-01 -8.1178921461105347e-01</leafValues></_></weakClassifiers></_>
    <!-- stage 11 -->
    <_>
      <maxWeakCount>4</maxWeakCount>
      <stageThreshold>-1.8328335285186768e+00</stageThreshold>
      <weakClassifiers>
        <_>
          <internalNodes>
            0 -1 19 9.1102413833141327e-02</internalNodes>
          <leafValues>
            -9.1938579082489014e-01 1.</leafValues></_>
        <_>
          <internalNodes>
            0 -1 14 -1.0042021051049232e-02</internalNodes>
          <leafValues>
            4.1835397481918335e-01 -7.3596757650375366e-01</leafValues></_>
        <_>
          <internalNodes>
            0 -1 23 -7.6441198587417603e-02</internalNodes>
          <leafValues>
            5.7333618402481079e-01 -6.8077164888381958e-01</leafValues></_>
        <_>
          <internalNodes>
            0 -1 45 1.8028704449534416e-02</internalNodes>
          <leafValues>
            -5.9054654836654663e-01 5.0329148769378662e-01</leafValues></_></weakClassifiers></_>
    <!-- stage 12 -->
    <_>
      <maxWeakCount>3</maxWeakCount>
      <stageThreshold>-1.6616348028182983e+00</stageThreshold>
      <weakClassifiers>
        <_>
          <internalNodes>
            0 -1 13 2.6476079225540161e-01</internalNodes>
          <leafValues>
            -9.1754555702209473e-01 1.</leafValues></_>
        <_>
          <internalNodes>
            0 -1 22 -8.0883558839559555e-03</internalNodes>
          <leafValues>
            1.4626635611057281e-01 -7.9419833421707153e-01</leafValues></_>
        <_>
          <internalNodes>
            0 -1 4 1.7881209496408701e-03</internalNodes>
          <leafValues>
            -8.9035558700561523e-01 2.5427442789077759e-01</leafValues></_></weakClassifiers></_>
    <!-- stage 13 -->
    <_>
      <maxWeakCount>4</maxWeakCount>
      <stageThreshold>-1.4771575927734375e+00</stageThreshold>
      <weakClassifiers>
        <_>
          <internalNodes>
            0 -1 31 -2.1389249712228775e-02</internalNodes>
          <leafValues>
            3.8461539149284363e-01 -9.2463767528533936e-01</leafValues></_>
        <_>
          <internalNodes>
            0 -1 1 -2.1365195512771606e-02</internalNodes>
          <leafValues>
            1.7347911000251770e-01 -7.5189793109893799e-01</leafValues></_>
        <_>
          <internalNodes>
            0 -1 16 -7.3736220598220825e-02</internalNodes>
          <leafValues>
            1.6485951840877533e-01 -9.6119058132171631e-01</leafValues></_>
        <_>
          <internalNodes>
            0 -1 41 -2.9352754354476929e-03</internalNodes>
          <leafValues>
            2.5917527079582214e-01 -8.9085859060287476e-01</leafValues></_></weakClassifiers></_>
    <!-- stage 14 -->
    <_>
      <maxWeakCount>5</maxWeakCount>
      <stageThreshold>-1.8209059238433838e+00</stageThreshold>
      <weakClassifiers>
        <_>
          <internalNodes>
            0 -1 28 4.3147206306457520e-02</internalNodes>
          <leafValues>
            -9.2292869091033936e-01 6.0000002384185791e-01</leafValues></_>
        <_>
          <internalNodes>
            0 -1 8 -1.1125687509775162e-02</internalNodes>
          <leafValues>
            2.7721256017684937e-01 -7.7681875228881836e-01</leafValues></_>
        <_>
          <internalNodes>
            0 -1 18 2.4402528651989996e-04</internalNodes>
          <leafValues>
            3.9123517274856567e-01 -6.9291591644287109e-01</leafValues></_>
        <_>
          <internalNodes>
            0 -1 48 -2.0133529324084520e-04</internalNodes>
          <leafValues>
            -1. 2.4410550296306610e-01</leafValues></_>
        <_>
          <internalNodes>
            0 -1 49 7.6066085603088140e-04</internalNodes>
          <leafValues>
            3.2765200734138489e-01 -9.2951756715774536e-01</leafValues></_></weakClassifiers></_></stages>
  <features>
    <_>
      <rects>
        <_>
          0 7 18 6 -1.</_>
        <_>
          6 7 6 6 3.</_></rects>
      <tilted>0</tilted></_>
    <_>
      <rects>
        <_>
          0 7 14 1 -1.</_>
        <_>
          7 7 7 1 2.</_></rects>
      <tilted>0</tilted></_>
    <_>
      <rects>
        <_>
          0 22 8 3 -1.</_>
        <_>
          4 22 4 3 2.</_></rects>
      <tilted>0</tilted></_>
    <_>
      <rects>
        <_>
          0 22 10 5 -1.</_>
        <_>
          5 22 5 5 2.</_></rects>
      <tilted>0</tilted></_>
    <_>
      <rects>
        <_>
          0 26 18 4 -1.</_>
        <_>
          0 26 9 2 2.</_>
        <_>
          9 28 9 2 2.</_></rects>
      <tilted>0</tilted></_>
    <_>
      <rects>
        <_>
          1 7 18 2 -1.</_>
        <_>
          7 7 6 2 3.</_></rects>
      <tilted>0</tilted></_>
    <_>
      <rects>
        <_>
          1 9 18 2 -1.</_>
        <_>
          7 9 6 2 3.</_></rects>
      <tilted>0</tilted></_>
    <_>
      <rects>
        <_>
          1 15 8 14 -1.</_>
        <_>
          1 15 4 7 2.</_>
        <_>
          5 22 4 7 2.</_></rects>
      <tilted>0</tilted></_>
    <_>
      <rects>
        <_>
          1 23 6 1 -1.</_>
        <_>
          4 23 3 1 2.</_></rects>
      <tilted>0</tilted></_>
    <_>
      <rects>
        <_>
          1 25 18 2 -1.</_>
        <_>
          7 25 6 2 3.</_></rects>
      <tilted>0</tilted></_>
    <_>
      <rects>
        <_>
          2 0 8 12 -1.</_>
        <_>
          2 0 4 6 2.</_>
        <_>
          6 6 4 6 2.</_></rects>
      <tilted>0</tilted></_>
    <_>
      <rects>
        <_>
          2 7 18 4 -1.</_>
        <_>
          8 7 6 4 3.</_></rects>
      <tilted>0</tilted></_>
    <_>
      <rects>
        <_>
          2 26 10 4 -1.</_>
        <_>
          2 28 10 2 2.</_></rects>
      <tilted>0</tilted></_>
    <_>
      <rects>
        <_>
          3 2 15 16 -1.</_>
        <_>
          8 2 5 16 3.</_></rects>
      <tilted>0</tilted></_>
    <_>
      <rects>
        <_>
          3 10 2 11 -1.</_>
        <_>
          4 10 1 11 2.</_></rects>
      <tilted>0</tilted></_>
    <_>
      <rects>
        <_>
          3 11 2 13 -1.</_>
        <_>
          4 11 1 13 2.</_></rects>
      <tilted>0</tilted></_>
    <_>
      <rects>
        <_>
          3 13 16 14 -1.</_>
        <_>
          3 20 16 7 2.</_></rects>
      <tilted>0</tilted></_>
    <_>
      <rects>
        <_>
          3 22 2 1 -1.</_>
        <_>
          4 22 1 1 2.</_></rects>
      <tilted>0</tilted></_>
    <_>
      <rects>
        <_>
          3 26 6 3 -1.</_>
        <_>
          3 27 6 1 3.</_></rects>
      <tilted>0</tilted></_>
    <_>
      <rects>
        <_>
          4 0 7 8 -1.</_>
        <_>
          4 4 7 4 2.</_></rects>
      <tilted>0</tilted></_>
    <_>
      <rects>
        <_>
          4 7 6 8 -1.</_>
        <_>
          6 7 2 8 3.</_></rects>
      <tilted>0</tilted></_>
    <_>
      <rects>
        <_>
          4 7 15 22 -1.</_>
        <_>
          9 7 5 22 3.</_></rects>
      <tilted>0</tilted></_>
    <_>
      <rects>
        <_>
          4 18 2 10 -1.</_>
        <_>
          4 18 1 5 2.</_>
        <_>
          5 23 1 5 2.</_></rects>
      <tilted>0</tilted></_>
    <_>
      <rects>
        <_>
          4 19 14 6 -1.</_>
        <_>
          4 22 14 3 2.</_></rects>
      <tilted>0</tilted></_>
    <_>
      <rects>
        <_>
          4 21 3 6 -1.</_>
        <_>
          4 23 3 2 3.</_></rects>
      <tilted>0</tilted></_>
    <_>
      <rects>
        <_>
          4 22 2 8 -1.</_>
        <_>
          5 22 1 8 2.</_></rects>
      <tilted>0</tilted></_>
    <_>
      <rects>
        <_>
          4 26 3 2 -1.</_>
        <_>
          4 27 3 1 2.</_></rects>
      <tilted>0</tilted></_>
    <_>
      <rects>
        <_>
          5 0 3 4 -1.</_>
        <_>
          5 2 3 2 2.</_></rects>
      <tilted>0</tilted></_>
    <_>
      <rects>
        <_>
          5 8 6 6 -1.</_>
        <_>
          7 8 2 6 3.</_></rects>
      <tilted>0</tilted></_>
    <_>
      <rects>
        <_>
          5 15 4 12 -1.</_>
        <_>
          5 21 4 6 2.</_></rects>
      <tilted>0</tilted></_>
    <_>
      <rects>
        <_>
          5 18 1 12 -1.</_>
        <_>
          5 22 1 4 3.</_></rects>
      <tilted>0</tilted></_>
    <_>
      <rects>
        <_>
          5 22 7 2 -1.</_>
        <_>
          5 23 7 1 2.</_></rects>
      <tilted>0</tilted></_>
    <_>
      <rects>
        <_>
          5 25 6 5 -1.</_>
        <_>
          7 25 2 5 3.</_></rects>
      <tilted>0</tilted></_>
    <_>
      <rects>
        <_>
          6 1 4 9 -1.</_>
        <_>
          6 4 4 3 3.</_></rects>
      <tilted>0</tilted></_>
    <_>
      <rects>
        <_>
          6 4 8 6 -1.</_>
        <_>
          6 7 8 3 2.</_></rects>
      <tilted>0</tilted></_>
    <_>
      <rects>
        <_>
          6 21 8 9 -1.</_>
        <_>
          6 24 8 3 3.</_></rects>
      <tilted>0</tilted></_>
    <_>
      <rects>
        <_>
          7 13 4 1 -1.</_>
        <_>
          9 13 2 1 2.</_></rects>
      <tilted>0</tilted></_>
    <_>
      <rects>
        <_>
          7 17 2 1 -1.</_>
        <_>
          8 17 1 1 2.</_></rects>
      <tilted>0</tilted></_>
    <_>
      <rects>
        <_>
          8 22 12 3 -1.</_>
        <_>
          12 22 4 3 3.</_></rects>
      <tilted>0</tilted></_>
    <_>
      <rects>
        <_>
          8 26 6 4 -1.</_>
        <_>
          10 26 2 4 3.</_></rects>
      <tilted>0</tilted></_>
    <_>
      <rects>
        <_>
          9 25 4 1 -1.</_>
        <_>
          11 25 2 1 2.</_></rects>
      <tilted>0</tilted></_>
    <_>
      <rects>
        <_>
          10 24 6 6 -1.</_>
        <_>
          12 24 2 6 3.</_></rects>
      <tilted>0</tilted></_>
    <_>
      <rects>
        <_>
          11 3 8 10 -1.</_>
        <_>
          11 3 4 5 2.</_>
        <_>
          15 8 4 5 2.</_></rects>
      <tilted>0</tilted></_>
    <_>
      <rects>
        <_>
          11 10 6 3 -1.</_>
        <_>
          13 10 2 3 3.</_></rects>
      <tilted>0</tilted></_>
    <_>
      <rects>
        <_>
          11 21 3 9 -1.</_>
        <_>
          11 24 3 3 3.</_></rects>
      <tilted>0</tilted></_>
    <_>
      <rects>
        <_>
          13 1 6 12 -1.</_>
        <_>
          13 1 3 6 2.</_>
        <_>
          16 7 3 6 2.</_></rects>
      <tilted>0</tilted></_>
    <_>
      <rects>
        <_>
          13 9 2 5 -1.</_>
        <_>
          14 9 1 5 2.</_></rects>
      <tilted>0</tilted></_>
    <_>
      <rects>
        <_>
          13 20 2 8 -1.</_>
        <_>
          13 20 1 4 2.</_>
        <_>
          14 24 1 4 2.</_></rects>
      <tilted>0</tilted></_>
    <_>
      <rects>
        <_>
          15 28 4 2 -1.</_>
        <_>
          17 28 2 2 2.</_></rects>
      <tilted>0</tilted></_>
    <_>
      <rects>
        <_>
          15 29 4 1 -1.</_>
        <_>
          17 29 2 1 2.</_></rects>
      <tilted>0</tilted></_></features></cascade>
</opencv_storage>
